<?xml version="1.0"?>
<opencv_storage>
<!-- Automatically converted from haarcascade, window size = 20x20 -->
<haarcascade-inter type_id="opencv-haar-classifier">
  <size>
    20 20</size>
  <stages>
    <_>
      <!-- stage 0 -->
      <trees>
        <_>
          <!-- tree 0 -->
          <_>
            <!-- root node -->
            <feature>
              <rects>
                <_>
                  5 1 4 10 -1.</_>
                <_>
                  5 6 4 5 2.</_></rects>
              <tilted>0</tilted></feature>
            <threshold>5.1010861061513424e-03</threshold>
            <left_val>1.</left_val>
            <right_node>1</right_node></_>
          <_>
            <!-- node 1 -->
            <feature>
              <rects>
                <_>
                  0 0 2 1 -1.</_>
                <_>
                  1 0 1 1 2.</_></rects>
              <tilted>0</tilted></feature>
            <threshold>-1.9518360495567322e-03</threshold>
            <left_val>0.</left_val>
            <right_val>-1.</right_val></_></_></trees>
      <stage_threshold>1.</stage_threshold>
      <parent>-1</parent>
      <next>-1</next></_>
    <_>
      <!-- stage 1 -->
      <trees>
        <_>
          <!-- tree 0 -->
          <_>
            <!-- root node -->
            <feature>
              <rects>
                <_>
                  14 8 4 9 -1.</_>
                <_>
                  16 8 2 9 2.</_></rects>
              <tilted>0</tilted></feature>
            <threshold>8.3641428500413895e-03</threshold>
            <left_node>1</left_node>
            <right_val>9.9999958276748657e-01</right_val></_>
          <_>
            <!-- node 1 -->
            <feature>
              <rects>
                <_>
                  0 0 8 2 -1.</_>
                <_>
                  2 0 4 2 2.</_></rects>
              <tilted>0</tilted></feature>
            <threshold>-2.4272730574011803e-02</threshold>
            <left_val>1.</left_val>
            <right_val>-1.</right_val></_></_></trees>
      <stage_threshold>9.9999958276748657e-01</stage_threshold>
      <parent>0</parent>
      <next>-1</next></_>
    <_>
      <!-- stage 2 -->
      <trees>
        <_>
          <!-- tree 0 -->
          <_>
            <!-- root node -->
            <feature>
              <rects>
                <_>
                  6 5 2 1 -1.</_>
                <_>
                  6 5 1 1 2.</_></rects>
              <tilted>1</tilted></feature>
            <threshold>7.2989857289940119e-04</threshold>
            <left_val>-1.</left_val>
            <right_node>1</right_node></_>
          <_>
            <!-- node 1 -->
            <feature>
              <rects>
                <_>
                  0 0 2 1 -1.</_>
                <_>
                  1 0 1 1 2.</_></rects>
              <tilted>0</tilted></feature>
            <threshold>-1.7028089496307075e-04</threshold>
            <left_val>0.</left_val>
            <right_val>1.</right_val></_></_></trees>
      <stage_threshold>1.</stage_threshold>
      <parent>1</parent>
      <next>-1</next></_>
    <_>
      <!-- stage 3 -->
      <trees>
        <_>
          <!-- tree 0 -->
          <_>
            <!-- root node -->
            <feature>
              <rects>
                <_>
                  1 1 12 6 -1.</_>
                <_>
                  1 1 6 3 2.</_>
                <_>
                  7 4 6 3 2.</_></rects>
              <tilted>0</tilted></feature>
            <threshold>-3.6263361573219299e-02</threshold>
            <left_val>1.</left_val>
            <right_node>1</right_node></_>
          <_>
            <!-- node 1 -->
            <feature>
              <rects>
                <_>
                  0 0 1 12 -1.</_>
                <_>
                  0 6 1 6 2.</_></rects>
              <tilted>0</tilted></feature>
            <threshold>5.4017747752368450e-03</threshold>
            <left_val>-1.</left_val>
            <right_val>9.9999952316284180e-01</right_val></_></_></trees>
      <stage_threshold>9.9999952316284180e-01</stage_threshold>
      <parent>2</parent>
      <next>-1</next></_>
    <_>
      <!-- stage 4 -->
      <trees>
        <_>
          <!-- tree 0 -->
          <_>
            <!-- root node -->
            <feature>
              <rects>
                <_>
                  7 8 8 3 -1.</_>
                <_>
                  9 8 4 3 2.</_></rects>
              <tilted>0</tilted></feature>
            <threshold>8.2639707252383232e-03</threshold>
            <left_node>1</left_node>
            <right_val>9.9999952316284180e-01</right_val></_>
          <_>
            <!-- node 1 -->
            <feature>
              <rects>
                <_>
                  0 0 9 3 -1.</_>
                <_>
                  3 1 3 1 9.</_></rects>
              <tilted>0</tilted></feature>
            <threshold>-3.4093830734491348e-02</threshold>
            <left_val>1.</left_val>
            <right_val>-9.9999988079071045e-01</right_val></_></_></trees>
      <stage_threshold>9.9999952316284180e-01</stage_threshold>
      <parent>3</parent>
      <next>-1</next></_>
    <_>
      <!-- stage 5 -->
      <trees>
        <_>
          <!-- tree 0 -->
          <_>
            <!-- root node -->
            <feature>
              <rects>
                <_>
                  12 2 3 15 -1.</_>
                <_>
                  13 7 1 5 9.</_></rects>
              <tilted>0</tilted></feature>
            <threshold>-1.2282109819352627e-02</threshold>
            <left_val>8.6131387948989868e-01</left_val>
            <right_node>1</right_node></_>
          <_>
            <!-- node 1 -->
            <feature>
              <rects>
                <_>
                  0 0 4 14 -1.</_>
                <_>
                  0 0 2 7 2.</_>
                <_>
                  2 7 2 7 2.</_></rects>
              <tilted>0</tilted></feature>
            <threshold>-3.1807430088520050e-02</threshold>
            <left_val>1.</left_val>
            <right_val>-1.</right_val></_></_></trees>
      <stage_threshold>8.6131387948989868e-01</stage_threshold>
      <parent>4</parent>
      <next>-1</next></_>
    <_>
      <!-- stage 6 -->
      <trees>
        <_>
          <!-- tree 0 -->
          <_>
            <!-- root node -->
            <feature>
              <rects>
                <_>
                  3 8 6 2 -1.</_>
                <_>
                  5 8 2 2 3.</_></rects>
              <tilted>0</tilted></feature>
            <threshold>-8.1023294478654861e-03</threshold>
            <left_val>1.</left_val>
            <right_node>1</right_node></_>
          <_>
            <!-- node 1 -->
            <feature>
              <rects>
                <_>
                  0 0 2 20 -1.</_>
                <_>
                  0 0 1 10 2.</_>
                <_>
                  1 10 1 10 2.</_></rects>
              <tilted>0</tilted></feature>
            <threshold>1.5434529632329941e-02</threshold>
            <left_val>-1.</left_val>
            <right_val>9.9999952316284180e-01</right_val></_></_></trees>
      <stage_threshold>9.9999952316284180e-01</stage_threshold>
      <parent>5</parent>
      <next>-1</next></_>
    <_>
      <!-- stage 7 -->
      <trees>
        <_>
          <!-- tree 0 -->
          <_>
            <!-- root node -->
            <feature>
              <rects>
                <_>
                  14 7 2 1 -1.</_>
                <_>
                  15 7 1 1 2.</_></rects>
              <tilted>0</tilted></feature>
            <threshold>7.5937947258353233e-05</threshold>
            <left_node>1</left_node>
            <right_val>9.9999922513961792e-01</right_val></_>
          <_>
            <!-- node 1 -->
            <feature>
              <rects>
                <_>
                  0 0 18 3 -1.</_>
                <_>
                  6 1 6 1 9.</_></rects>
              <tilted>0</tilted></feature>
            <threshold>-1.1477150022983551e-01</threshold>
            <left_val>1.</left_val>
            <right_val>-1.</right_val></_></_></trees>
      <stage_threshold>9.9999922513961792e-01</stage_threshold>
      <parent>6</parent>
      <next>-1</next></_>
    <_>
      <!-- stage 8 -->
      <trees>
        <_>
          <!-- tree 0 -->
          <_>
            <!-- root node -->
            <feature>
              <rects>
                <_>
                  3 6 11 4 -1.</_>
                <_>
                  3 8 11 2 2.</_></rects>
              <tilted>0</tilted></feature>
            <threshold>5.8758747763931751e-03</threshold>
            <left_node>1</left_node>
            <right_val>9.9999958276748657e-01</right_val></_>
          <_>
            <!-- node 1 -->
            <feature>
              <rects>
                <_>
                  0 0 1 6 -1.</_>
                <_>
                  0 2 1 2 3.</_></rects>
              <tilted>0</tilted></feature>
            <threshold>1.0159039869904518e-02</threshold>
            <left_val>-1.</left_val>
            <right_val>9.9999958276748657e-01</right_val></_></_></trees>
      <stage_threshold>9.9999958276748657e-01</stage_threshold>
      <parent>7</parent>
      <next>-1</next></_>
    <_>
      <!-- stage 9 -->
      <trees>
        <_>
          <!-- tree 0 -->
          <_>
            <!-- root node -->
            <feature>
              <rects>
                <_>
                  6 5 14 6 -1.</_>
                <_>
                  6 8 14 3 2.</_></rects>
              <tilted>0</tilted></feature>
            <threshold>2.6752289384603500e-02</threshold>
            <left_val>1.</left_val>
            <right_node>1</right_node></_>
          <_>
            <!-- node 1 -->
            <feature>
              <rects>
                <_>
                  0 0 2 1 -1.</_>
                <_>
                  1 0 1 1 2.</_></rects>
              <tilted>0</tilted></feature>
            <threshold>0.</threshold>
            <left_val>0.</left_val>
            <right_val>-1.</right_val></_></_></trees>
      <stage_threshold>1.</stage_threshold>
      <parent>8</parent>
      <next>-1</next></_>
    <_>
      <!-- stage 10 -->
      <trees>
        <_>
          <!-- tree 0 -->
          <_>
            <!-- root node -->
            <feature>
              <rects>
                <_>
                  4 0 4 9 -1.</_>
                <_>
                  4 3 4 3 3.</_></rects>
              <tilted>0</tilted></feature>
            <threshold>-3.2680949661880732e-03</threshold>
            <left_val>-1.</left_val>
            <right_node>1</right_node></_>
          <_>
            <!-- node 1 -->
            <feature>
              <rects>
                <_>
                  0 0 2 1 -1.</_>
                <_>
                  1 0 1 1 2.</_></rects>
              <tilted>0</tilted></feature>
            <threshold>-1.7028089496307075e-04</threshold>
            <left_val>0.</left_val>
            <right_val>1.</right_val></_></_></trees>
      <stage_threshold>1.</stage_threshold>
      <parent>9</parent>
      <next>-1</next></_></stages></haarcascade-inter>
</opencv_storage>
